{"levels":[{"inputs":[0.42728347706616787,0.22838111601176647,0,0,0],"outputs":[1,0,0,0,1,0,0,0,0,1],"biases":[-0.07749732936917633,0.0008824191427485163,0.06120065868451183,0.08713715885859455,-0.15774316020101975,0.17993656468427394,0.0726924049411872,0.11626144408179495,-0.0006048929108930304,-0.2232711097762596],"weights":[[0.2230934475814913,-0.09707321561325608,0.11560558877342153,-0.13875117647643526,-0.10689620156937224,0.05807083158969392,0.059246838341340376,0.12659636539114963,0.006563193545444943,0.21936786197590014],[-0.0544499946177118,0.1706897814300034,-0.10233735854285321,0.08132172102028808,0.03784427085745968,0.1473317817437087,-0.038306623058997465,0.09943987575032796,-0.15510356633580272,-0.007204677957527307],[-0.0532321146282992,0.13810758881357688,0.034122181783682225,0.05857070330377496,-0.043153741832091655,-0.006456977173938521,0.060398006354835096,-0.08417153890111925,-0.048928303965553414,0.17365443715936796],[0.13046692368527774,-0.023843767451043243,0.1950522588102665,-0.11417506609650573,-0.23065212077874842,-0.03675658462501303,0.08062160540766095,-0.01186220488214387,-0.0090289223895097,0.10565917448985118],[-0.01964496620960245,-0.18052240521660942,0.19257581992400136,-0.24900292028768153,0.04736816613714519,0.2498050693384408,-0.14121458227802722,-0.11564871838158569,0.04728954504498728,0.1775727885717472]]},{"inputs":[1,0,0,0,1,0,0,0,0,1],"outputs":[1,0,0,0],"biases":[0.04222182137107241,-0.043290160605849774,-0.1903896742340284,0.03548879631723386],"weights":[[0.05555846143905165,-0.044090572986016326,0.04039606043572705,0.04518040238890153],[-0.17313915053824194,-0.05756975828165952,0.14947940417620192,-0.026371796049289152],[0.022627678327557778,0.09096862011893792,-0.11889335158040842,0.011710691282399304],[-0.08881029368776235,0.11188348239422832,0.16531097265457984,0.10006251880101777],[0.03820270823189336,0.011208705901836744,-0.1098993556728882,0.06698911496340865],[-0.04820725182596368,-0.007800266536634768,-0.08791293040726429,0.1381845083526716],[-0.10540713378239192,0.17424602293053407,0.21022215602668695,-0.11837433298496228],[0.1777034739982819,0.12823972706148185,-0.10377753806636948,0.12341080024559492],[-0.00000878154924655039,0.033037773642726746,-0.028446056725251766,-0.16956467297785321],[0.028664814880160663,-0.09090571791755254,-0.14763801738694438,-0.09891938015866196]]}]}